#pragma once
#include <cstdarg>
namespace Eloquent {
    namespace ML {
        namespace Port {
            class RandomForest {
                public:
                    /**
                    * Predict class for features vector
                    */
                    int predict(float *x) {
                        uint8_t votes[3] = { 0 };
                        // tree #1
                        if (x[3] <= 42.704471588134766) {
                            if (x[3] <= 26.23410701751709) {
                                if (x[2] <= 14.844204425811768) {
                                    if (x[3] <= 26.20073127746582) {
                                        if (x[1] <= 15.180921077728271) {
                                            if (x[2] <= 12.4473295211792) {
                                                if (x[3] <= 25.818257331848145) {
                                                    if (x[2] <= 12.153720378875732) {
                                                        if (x[0] <= 28.97392177581787) {
                                                            if (x[3] <= 22.968239784240723) {
                                                                votes[2] += 1;
                                                            }

                                                            else {
                                                                votes[2] += 1;
                                                            }
                                                        }

                                                        else {
                                                            if (x[3] <= 25.250574111938477) {
                                                                votes[0] += 1;
                                                            }

                                                            else {
                                                                votes[1] += 1;
                                                            }
                                                        }
                                                    }

                                                    else {
                                                        if (x[1] <= 12.878521919250488) {
                                                            if (x[2] <= 12.41354513168335) {
                                                                votes[0] += 1;
                                                            }

                                                            else {
                                                                votes[2] += 1;
                                                            }
                                                        }

                                                        else {
                                                            if (x[2] <= 12.366190433502197) {
                                                                votes[1] += 1;
                                                            }

                                                            else {
                                                                votes[2] += 1;
                                                            }
                                                        }
                                                    }
                                                }

                                                else {
                                                    if (x[2] <= 9.419600486755371) {
                                                        if (x[2] <= 5.130376815795898) {
                                                            votes[2] += 1;
                                                        }

                                                        else {
                                                            if (x[2] <= 7.691950798034668) {
                                                                votes[1] += 1;
                                                            }

                                                            else {
                                                                votes[1] += 1;
                                                            }
                                                        }
                                                    }

                                                    else {
                                                        if (x[3] <= 25.96786880493164) {
                                                            if (x[2] <= 10.330252647399902) {
                                                                votes[0] += 1;
                                                            }

                                                            else {
                                                                votes[2] += 1;
                                                            }
                                                        }

                                                        else {
                                                            if (x[0] <= 28.38333034515381) {
                                                                votes[1] += 1;
                                                            }

                                                            else {
                                                                votes[2] += 1;
                                                            }
                                                        }
                                                    }
                                                }
                                            }

                                            else {
                                                if (x[2] <= 12.559834480285645) {
                                                    if (x[0] <= 18.7138729095459) {
                                                        if (x[0] <= 18.078182220458984) {
                                                            votes[2] += 1;
                                                        }

                                                        else {
                                                            votes[0] += 1;
                                                        }
                                                    }

                                                    else {
                                                        votes[2] += 1;
                                                    }
                                                }

                                                else {
                                                    if (x[2] <= 12.57425832748413) {
                                                        votes[1] += 1;
                                                    }

                                                    else {
                                                        if (x[3] <= 13.23939561843872) {
                                                            if (x[0] <= 6.121856451034546) {
                                                                votes[2] += 1;
                                                            }

                                                            else {
                                                                votes[2] += 1;
                                                            }
                                                        }

                                                        else {
                                                            if (x[0] <= 16.498963356018066) {
                                                                votes[1] += 1;
                                                            }

                                                            else {
                                                                votes[2] += 1;
                                                            }
                                                        }
                                                    }
                                                }
                                            }
                                        }

                                        else {
                                            if (x[1] <= 15.39813232421875) {
                                                if (x[0] <= 27.256357192993164) {
                                                    if (x[3] <= 17.179712295532227) {
                                                        if (x[2] <= 13.560111999511719) {
                                                            if (x[3] <= 8.50536036491394) {
                                                                votes[2] += 1;
                                                            }

                                                            else {
                                                                votes[1] += 1;
                                                            }
                                                        }

                                                        else {
                                                            if (x[1] <= 15.242488384246826) {
                                                                votes[1] += 1;
                                                            }

                                                            else {
                                                                votes[2] += 1;
                                                            }
                                                        }
                                                    }

                                                    else {
                                                        if (x[2] <= 9.383586406707764) {
                                                            votes[1] += 1;
                                                        }

                                                        else {
                                                            if (x[1] <= 15.334388732910156) {
                                                                votes[2] += 1;
                                                            }

                                                            else {
                                                                votes[1] += 1;
                                                            }
                                                        }
                                                    }
                                                }

                                                else {
                                                    if (x[0] <= 27.8770751953125) {
                                                        votes[0] += 1;
                                                    }

                                                    else {
                                                        if (x[0] <= 28.916590690612793) {
                                                            votes[1] += 1;
                                                        }

                                                        else {
                                                            votes[0] += 1;
                                                        }
                                                    }
                                                }
                                            }

                                            else {
                                                if (x[1] <= 19.076330184936523) {
                                                    if (x[1] <= 16.178665161132812) {
                                                        if (x[0] <= 29.442322731018066) {
                                                            if (x[2] <= 12.714237213134766) {
                                                                votes[2] += 1;
                                                            }

                                                            else {
                                                                votes[0] += 1;
                                                            }
                                                        }

                                                        else {
                                                            votes[0] += 1;
                                                        }
                                                    }

                                                    else {
                                                        if (x[3] <= 26.092424392700195) {
                                                            if (x[3] <= 17.069262504577637) {
                                                                votes[2] += 1;
                                                            }

                                                            else {
                                                                votes[2] += 1;
                                                            }
                                                        }

                                                        else {
                                                            if (x[2] <= 12.199878215789795) {
                                                                votes[0] += 1;
                                                            }

                                                            else {
                                                                votes[2] += 1;
                                                            }
                                                        }
                                                    }
                                                }

                                                else {
                                                    if (x[1] <= 19.70647144317627) {
                                                        if (x[1] <= 19.669158935546875) {
                                                            if (x[2] <= 14.670863628387451) {
                                                                votes[0] += 1;
                                                            }

                                                            else {
                                                                votes[1] += 1;
                                                            }
                                                        }

                                                        else {
                                                            votes[1] += 1;
                                                        }
                                                    }

                                                    else {
                                                        votes[2] += 1;
                                                    }
                                                }
                                            }
                                        }
                                    }

                                    else {
                                        if (x[1] <= 15.437522411346436) {
                                            votes[0] += 1;
                                        }

                                        else {
                                            votes[1] += 1;
                                        }
                                    }
                                }

                                else {
                                    if (x[3] <= 2.7922332286834717) {
                                        votes[1] += 1;
                                    }

                                    else {
                                        if (x[0] <= 27.300336837768555) {
                                            if (x[2] <= 15.465240955352783) {
                                                if (x[0] <= 17.426610946655273) {
                                                    votes[2] += 1;
                                                }

                                                else {
                                                    if (x[3] <= 16.534029006958008) {
                                                        votes[1] += 1;
                                                    }

                                                    else {
                                                        if (x[1] <= 15.333305835723877) {
                                                            if (x[1] <= 15.055492401123047) {
                                                                votes[2] += 1;
                                                            }

                                                            else {
                                                                votes[1] += 1;
                                                            }
                                                        }

                                                        else {
                                                            votes[2] += 1;
                                                        }
                                                    }
                                                }
                                            }

                                            else {
                                                if (x[1] <= 16.317063331604004) {
                                                    if (x[1] <= 14.1575345993042) {
                                                        if (x[1] <= 13.65764331817627) {
                                                            votes[2] += 1;
                                                        }

                                                        else {
                                                            if (x[0] <= 21.582173347473145) {
                                                                votes[0] += 1;
                                                            }

                                                            else {
                                                                votes[1] += 1;
                                                            }
                                                        }
                                                    }

                                                    else {
                                                        if (x[1] <= 15.244962692260742) {
                                                            if (x[2] <= 16.05222988128662) {
                                                                votes[2] += 1;
                                                            }

                                                            else {
                                                                votes[2] += 1;
                                                            }
                                                        }

                                                        else {
                                                            votes[2] += 1;
                                                        }
                                                    }
                                                }

                                                else {
                                                    if (x[2] <= 15.772512912750244) {
                                                        if (x[2] <= 15.649142265319824) {
                                                            if (x[0] <= 18.181368827819824) {
                                                                votes[1] += 1;
                                                            }

                                                            else {
                                                                votes[2] += 1;
                                                            }
                                                        }

                                                        else {
                                                            votes[0] += 1;
                                                        }
                                                    }

                                                    else {
                                                        if (x[0] <= 26.55178451538086) {
                                                            if (x[1] <= 16.888949394226074) {
                                                                votes[1] += 1;
                                                            }

                                                            else {
                                                                votes[2] += 1;
                                                            }
                                                        }

                                                        else {
                                                            votes[2] += 1;
                                                        }
                                                    }
                                                }
                                            }
                                        }

                                        else {
                                            if (x[0] <= 29.24947738647461) {
                                                if (x[3] <= 24.947457313537598) {
                                                    if (x[0] <= 28.156271934509277) {
                                                        if (x[0] <= 27.404369354248047) {
                                                            votes[1] += 1;
                                                        }

                                                        else {
                                                            if (x[3] <= 24.645273208618164) {
                                                                votes[2] += 1;
                                                            }

                                                            else {
                                                                votes[0] += 1;
                                                            }
                                                        }
                                                    }

                                                    else {
                                                        votes[1] += 1;
                                                    }
                                                }

                                                else {
                                                    votes[2] += 1;
                                                }
                                            }

                                            else {
                                                votes[2] += 1;
                                            }
                                        }
                                    }
                                }
                            }

                            else {
                                if (x[1] <= 20.664386749267578) {
                                    if (x[2] <= 14.07438611984253) {
                                        if (x[2] <= 3.59953773021698) {
                                            if (x[0] <= 37.6669921875) {
                                                if (x[2] <= 3.0071133375167847) {
                                                    votes[0] += 1;
                                                }

                                                else {
                                                    votes[1] += 1;
                                                }
                                            }

                                            else {
                                                if (x[3] <= 33.36739730834961) {
                                                    votes[1] += 1;
                                                }

                                                else {
                                                    votes[2] += 1;
                                                }
                                            }
                                        }

                                        else {
                                            if (x[2] <= 13.929664611816406) {
                                                if (x[1] <= 13.822770595550537) {
                                                    if (x[0] <= 28.018856048583984) {
                                                        if (x[3] <= 26.38012409210205) {
                                                            votes[1] += 1;
                                                        }

                                                        else {
                                                            if (x[3] <= 26.647892951965332) {
                                                                votes[2] += 1;
                                                            }

                                                            else {
                                                                votes[1] += 1;
                                                            }
                                                        }
                                                    }

                                                    else {
                                                        if (x[1] <= 9.547934532165527) {
                                                            if (x[1] <= 9.400529861450195) {
                                                                votes[2] += 1;
                                                            }

                                                            else {
                                                                votes[1] += 1;
                                                            }
                                                        }

                                                        else {
                                                            if (x[3] <= 27.16829776763916) {
                                                                votes[2] += 1;
                                                            }

                                                            else {
                                                                votes[2] += 1;
                                                            }
                                                        }
                                                    }
                                                }

                                                else {
                                                    if (x[2] <= 5.527582168579102) {
                                                        votes[1] += 1;
                                                    }

                                                    else {
                                                        if (x[3] <= 39.13409233093262) {
                                                            if (x[3] <= 38.936683654785156) {
                                                                votes[2] += 1;
                                                            }

                                                            else {
                                                                votes[2] += 1;
                                                            }
                                                        }

                                                        else {
                                                            if (x[0] <= 44.793540954589844) {
                                                                votes[1] += 1;
                                                            }

                                                            else {
                                                                votes[2] += 1;
                                                            }
                                                        }
                                                    }
                                                }
                                            }

                                            else {
                                                if (x[2] <= 13.943625450134277) {
                                                    votes[0] += 1;
                                                }

                                                else {
                                                    if (x[2] <= 14.005146503448486) {
                                                        if (x[0] <= 33.03831958770752) {
                                                            votes[0] += 1;
                                                        }

                                                        else {
                                                            if (x[0] <= 40.18024253845215) {
                                                                votes[1] += 1;
                                                            }

                                                            else {
                                                                votes[1] += 1;
                                                            }
                                                        }
                                                    }

                                                    else {
                                                        if (x[0] <= 42.869882583618164) {
                                                            if (x[3] <= 32.370094299316406) {
                                                                votes[1] += 1;
                                                            }

                                                            else {
                                                                votes[2] += 1;
                                                            }
                                                        }

                                                        else {
                                                            votes[1] += 1;
                                                        }
                                                    }
                                                }
                                            }
                                        }
                                    }

                                    else {
                                        if (x[1] <= 16.873730659484863) {
                                            if (x[2] <= 15.2887601852417) {
                                                if (x[2] <= 14.51436185836792) {
                                                    if (x[1] <= 13.183386325836182) {
                                                        if (x[2] <= 14.169680118560791) {
                                                            votes[1] += 1;
                                                        }

                                                        else {
                                                            votes[2] += 1;
                                                        }
                                                    }

                                                    else {
                                                        if (x[0] <= 33.68061828613281) {
                                                            if (x[2] <= 14.365498542785645) {
                                                                votes[2] += 1;
                                                            }

                                                            else {
                                                                votes[2] += 1;
                                                            }
                                                        }

                                                        else {
                                                            votes[2] += 1;
                                                        }
                                                    }
                                                }

                                                else {
                                                    if (x[0] <= 40.34278869628906) {
                                                        if (x[3] <= 35.3956184387207) {
                                                            if (x[2] <= 14.519975185394287) {
                                                                votes[1] += 1;
                                                            }

                                                            else {
                                                                votes[2] += 1;
                                                            }
                                                        }

                                                        else {
                                                            if (x[2] <= 14.871520042419434) {
                                                                votes[1] += 1;
                                                            }

                                                            else {
                                                                votes[2] += 1;
                                                            }
                                                        }
                                                    }

                                                    else {
                                                        if (x[2] <= 14.724098205566406) {
                                                            if (x[3] <= 42.144243240356445) {
                                                                votes[2] += 1;
                                                            }

                                                            else {
                                                                votes[1] += 1;
                                                            }
                                                        }

                                                        else {
                                                            votes[2] += 1;
                                                        }
                                                    }
                                                }
                                            }

                                            else {
                                                if (x[2] <= 17.059779167175293) {
                                                    if (x[1] <= 13.384732723236084) {
                                                        if (x[3] <= 35.92946815490723) {
                                                            votes[0] += 1;
                                                        }

                                                        else {
                                                            votes[2] += 1;
                                                        }
                                                    }

                                                    else {
                                                        if (x[1] <= 16.617136001586914) {
                                                            if (x[3] <= 40.86480712890625) {
                                                                votes[2] += 1;
                                                            }

                                                            else {
                                                                votes[1] += 1;
                                                            }
                                                        }

                                                        else {
                                                            votes[1] += 1;
                                                        }
                                                    }
                                                }

                                                else {
                                                    if (x[3] <= 35.34495735168457) {
                                                        votes[2] += 1;
                                                    }

                                                    else {
                                                        if (x[3] <= 39.25165367126465) {
                                                            votes[1] += 1;
                                                        }

                                                        else {
                                                            votes[2] += 1;
                                                        }
                                                    }
                                                }
                                            }
                                        }

                                        else {
                                            if (x[1] <= 16.978391647338867) {
                                                if (x[1] <= 16.909259796142578) {
                                                    if (x[1] <= 16.89237689971924) {
                                                        votes[0] += 1;
                                                    }

                                                    else {
                                                        votes[1] += 1;
                                                    }
                                                }

                                                else {
                                                    if (x[1] <= 16.934121131896973) {
                                                        if (x[0] <= 39.794368743896484) {
                                                            votes[2] += 1;
                                                        }

                                                        else {
                                                            votes[0] += 1;
                                                        }
                                                    }

                                                    else {
                                                        votes[0] += 1;
                                                    }
                                                }
                                            }

                                            else {
                                                if (x[3] <= 27.132503509521484) {
                                                    if (x[3] <= 26.858580589294434) {
                                                        if (x[1] <= 17.45035743713379) {
                                                            votes[2] += 1;
                                                        }

                                                        else {
                                                            if (x[2] <= 14.60915756225586) {
                                                                votes[1] += 1;
                                                            }

                                                            else {
                                                                votes[0] += 1;
                                                            }
                                                        }
                                                    }

                                                    else {
                                                        votes[0] += 1;
                                                    }
                                                }

                                                else {
                                                    if (x[0] <= 29.875725746154785) {
                                                        if (x[0] <= 29.40989112854004) {
                                                            votes[1] += 1;
                                                        }

                                                        else {
                                                            votes[0] += 1;
                                                        }
                                                    }

                                                    else {
                                                        if (x[1] <= 17.369498252868652) {
                                                            if (x[3] <= 33.284210205078125) {
                                                                votes[1] += 1;
                                                            }

                                                            else {
                                                                votes[2] += 1;
                                                            }
                                                        }

                                                        else {
                                                            if (x[1] <= 20.40474510192871) {
                                                                votes[2] += 1;
                                                            }

                                                            else {
                                                                votes[1] += 1;
                                                            }
                                                        }
                                                    }
                                                }
                                            }
                                        }
                                    }
                                }

                                else {
                                    votes[0] += 1;
                                }
                            }
                        }

                        else {
                            if (x[0] <= 56.991363525390625) {
                                if (x[3] <= 45.95133018493652) {
                                    if (x[0] <= 47.76592445373535) {
                                        if (x[3] <= 44.86624526977539) {
                                            if (x[2] <= 11.121376037597656) {
                                                if (x[0] <= 47.51701354980469) {
                                                    if (x[0] <= 45.05663871765137) {
                                                        votes[1] += 1;
                                                    }

                                                    else {
                                                        if (x[3] <= 43.895912170410156) {
                                                            votes[2] += 1;
                                                        }

                                                        else {
                                                            if (x[0] <= 46.928396224975586) {
                                                                votes[2] += 1;
                                                            }

                                                            else {
                                                                votes[1] += 1;
                                                            }
                                                        }
                                                    }
                                                }

                                                else {
                                                    if (x[1] <= 9.152729034423828) {
                                                        votes[0] += 1;
                                                    }

                                                    else {
                                                        if (x[0] <= 47.530677795410156) {
                                                            votes[1] += 1;
                                                        }

                                                        else {
                                                            votes[2] += 1;
                                                        }
                                                    }
                                                }
                                            }

                                            else {
                                                if (x[0] <= 46.77997589111328) {
                                                    if (x[1] <= 14.045666694641113) {
                                                        votes[1] += 1;
                                                    }

                                                    else {
                                                        if (x[3] <= 43.264352798461914) {
                                                            votes[2] += 1;
                                                        }

                                                        else {
                                                            votes[0] += 1;
                                                        }
                                                    }
                                                }

                                                else {
                                                    if (x[1] <= 16.587912559509277) {
                                                        if (x[3] <= 42.758819580078125) {
                                                            votes[0] += 1;
                                                        }

                                                        else {
                                                            if (x[0] <= 47.08820152282715) {
                                                                votes[0] += 1;
                                                            }

                                                            else {
                                                                votes[2] += 1;
                                                            }
                                                        }
                                                    }

                                                    else {
                                                        votes[0] += 1;
                                                    }
                                                }
                                            }
                                        }

                                        else {
                                            votes[1] += 1;
                                        }
                                    }

                                    else {
                                        if (x[0] <= 47.85160827636719) {
                                            if (x[2] <= 11.240645408630371) {
                                                if (x[1] <= 10.149744033813477) {
                                                    votes[2] += 1;
                                                }

                                                else {
                                                    votes[1] += 1;
                                                }
                                            }

                                            else {
                                                votes[2] += 1;
                                            }
                                        }

                                        else {
                                            if (x[3] <= 43.59353828430176) {
                                                if (x[1] <= 14.924182891845703) {
                                                    if (x[3] <= 43.53229904174805) {
                                                        if (x[2] <= 9.862751007080078) {
                                                            if (x[3] <= 42.77227783203125) {
                                                                votes[2] += 1;
                                                            }

                                                            else {
                                                                votes[2] += 1;
                                                            }
                                                        }

                                                        else {
                                                            if (x[3] <= 43.22268867492676) {
                                                                votes[1] += 1;
                                                            }

                                                            else {
                                                                votes[2] += 1;
                                                            }
                                                        }
                                                    }

                                                    else {
                                                        if (x[0] <= 48.98766899108887) {
                                                            if (x[1] <= 14.411197185516357) {
                                                                votes[1] += 1;
                                                            }

                                                            else {
                                                                votes[0] += 1;
                                                            }
                                                        }

                                                        else {
                                                            votes[1] += 1;
                                                        }
                                                    }
                                                }

                                                else {
                                                    if (x[0] <= 49.877769470214844) {
                                                        votes[2] += 1;
                                                    }

                                                    else {
                                                        if (x[1] <= 16.116007328033447) {
                                                            votes[0] += 1;
                                                        }

                                                        else {
                                                            votes[2] += 1;
                                                        }
                                                    }
                                                }
                                            }

                                            else {
                                                if (x[3] <= 44.27003288269043) {
                                                    if (x[1] <= 9.779029369354248) {
                                                        if (x[1] <= 9.101483345031738) {
                                                            votes[2] += 1;
                                                        }

                                                        else {
                                                            votes[1] += 1;
                                                        }
                                                    }

                                                    else {
                                                        if (x[0] <= 49.05913162231445) {
                                                            votes[2] += 1;
                                                        }

                                                        else {
                                                            if (x[0] <= 49.740591049194336) {
                                                                votes[2] += 1;
                                                            }

                                                            else {
                                                                votes[2] += 1;
                                                            }
                                                        }
                                                    }
                                                }

                                                else {
                                                    if (x[0] <= 49.57573127746582) {
                                                        if (x[0] <= 49.27372169494629) {
                                                            if (x[1] <= 16.976240158081055) {
                                                                votes[2] += 1;
                                                            }

                                                            else {
                                                                votes[1] += 1;
                                                            }
                                                        }

                                                        else {
                                                            if (x[0] <= 49.5362434387207) {
                                                                votes[1] += 1;
                                                            }

                                                            else {
                                                                votes[0] += 1;
                                                            }
                                                        }
                                                    }

                                                    else {
                                                        if (x[2] <= 3.318646788597107) {
                                                            votes[1] += 1;
                                                        }

                                                        else {
                                                            if (x[1] <= 7.185139179229736) {
                                                                votes[1] += 1;
                                                            }

                                                            else {
                                                                votes[2] += 1;
                                                            }
                                                        }
                                                    }
                                                }
                                            }
                                        }
                                    }
                                }

                                else {
                                    if (x[3] <= 45.968345642089844) {
                                        votes[1] += 1;
                                    }

                                    else {
                                        if (x[2] <= 13.591956615447998) {
                                            if (x[3] <= 47.10782432556152) {
                                                if (x[2] <= 7.452327013015747) {
                                                    if (x[3] <= 46.93634796142578) {
                                                        if (x[2] <= 7.398609161376953) {
                                                            votes[2] += 1;
                                                        }

                                                        else {
                                                            votes[1] += 1;
                                                        }
                                                    }

                                                    else {
                                                        votes[1] += 1;
                                                    }
                                                }

                                                else {
                                                    if (x[3] <= 46.894697189331055) {
                                                        if (x[3] <= 46.8116512298584) {
                                                            if (x[1] <= 11.920026779174805) {
                                                                votes[2] += 1;
                                                            }

                                                            else {
                                                                votes[2] += 1;
                                                            }
                                                        }

                                                        else {
                                                            if (x[1] <= 13.603022575378418) {
                                                                votes[1] += 1;
                                                            }

                                                            else {
                                                                votes[0] += 1;
                                                            }
                                                        }
                                                    }

                                                    else {
                                                        votes[2] += 1;
                                                    }
                                                }
                                            }

                                            else {
                                                if (x[0] <= 51.70772361755371) {
                                                    if (x[3] <= 47.980390548706055) {
                                                        if (x[0] <= 51.42679023742676) {
                                                            if (x[1] <= 11.337094783782959) {
                                                                votes[0] += 1;
                                                            }

                                                            else {
                                                                votes[2] += 1;
                                                            }
                                                        }

                                                        else {
                                                            votes[0] += 1;
                                                        }
                                                    }

                                                    else {
                                                        votes[1] += 1;
                                                    }
                                                }

                                                else {
                                                    if (x[3] <= 47.385623931884766) {
                                                        if (x[0] <= 52.478485107421875) {
                                                            if (x[3] <= 47.33490562438965) {
                                                                votes[2] += 1;
                                                            }

                                                            else {
                                                                votes[1] += 1;
                                                            }
                                                        }

                                                        else {
                                                            if (x[0] <= 53.32794761657715) {
                                                                votes[1] += 1;
                                                            }

                                                            else {
                                                                votes[1] += 1;
                                                            }
                                                        }
                                                    }

                                                    else {
                                                        if (x[2] <= 6.516947984695435) {
                                                            if (x[3] <= 51.63033485412598) {
                                                                votes[2] += 1;
                                                            }

                                                            else {
                                                                votes[1] += 1;
                                                            }
                                                        }

                                                        else {
                                                            if (x[0] <= 51.816659927368164) {
                                                                votes[1] += 1;
                                                            }

                                                            else {
                                                                votes[2] += 1;
                                                            }
                                                        }
                                                    }
                                                }
                                            }
                                        }

                                        else {
                                            if (x[3] <= 46.505985260009766) {
                                                if (x[0] <= 52.680599212646484) {
                                                    if (x[1] <= 16.65260124206543) {
                                                        votes[1] += 1;
                                                    }

                                                    else {
                                                        if (x[3] <= 46.25883102416992) {
                                                            votes[2] += 1;
                                                        }

                                                        else {
                                                            votes[1] += 1;
                                                        }
                                                    }
                                                }

                                                else {
                                                    votes[0] += 1;
                                                }
                                            }

                                            else {
                                                if (x[0] <= 54.738563537597656) {
                                                    if (x[2] <= 14.488625049591064) {
                                                        if (x[2] <= 13.976776123046875) {
                                                            if (x[2] <= 13.719740867614746) {
                                                                votes[1] += 1;
                                                            }

                                                            else {
                                                                votes[2] += 1;
                                                            }
                                                        }

                                                        else {
                                                            if (x[3] <= 47.08797264099121) {
                                                                votes[2] += 1;
                                                            }

                                                            else {
                                                                votes[1] += 1;
                                                            }
                                                        }
                                                    }

                                                    else {
                                                        if (x[3] <= 47.1568717956543) {
                                                            if (x[0] <= 51.4128303527832) {
                                                                votes[2] += 1;
                                                            }

                                                            else {
                                                                votes[0] += 1;
                                                            }
                                                        }

                                                        else {
                                                            votes[2] += 1;
                                                        }
                                                    }
                                                }

                                                else {
                                                    if (x[0] <= 55.08039474487305) {
                                                        votes[1] += 1;
                                                    }

                                                    else {
                                                        if (x[3] <= 50.23827934265137) {
                                                            if (x[1] <= 15.854430198669434) {
                                                                votes[1] += 1;
                                                            }

                                                            else {
                                                                votes[2] += 1;
                                                            }
                                                        }

                                                        else {
                                                            if (x[0] <= 55.4484977722168) {
                                                                votes[2] += 1;
                                                            }

                                                            else {
                                                                votes[1] += 1;
                                                            }
                                                        }
                                                    }
                                                }
                                            }
                                        }
                                    }
                                }
                            }

                            else {
                                if (x[0] <= 57.93459129333496) {
                                    if (x[1] <= 18.747328758239746) {
                                        if (x[3] <= 52.89444541931152) {
                                            votes[2] += 1;
                                        }

                                        else {
                                            if (x[2] <= 8.063262939453125) {
                                                votes[2] += 1;
                                            }

                                            else {
                                                votes[1] += 1;
                                            }
                                        }
                                    }

                                    else {
                                        votes[0] += 1;
                                    }
                                }

                                else {
                                    if (x[1] <= 15.148606300354004) {
                                        if (x[0] <= 58.50769805908203) {
                                            if (x[1] <= 13.73376750946045) {
                                                if (x[2] <= 6.093820571899414) {
                                                    votes[2] += 1;
                                                }

                                                else {
                                                    if (x[1] <= 12.331196784973145) {
                                                        votes[1] += 1;
                                                    }

                                                    else {
                                                        if (x[1] <= 13.362125396728516) {
                                                            if (x[3] <= 53.30358123779297) {
                                                                votes[2] += 1;
                                                            }

                                                            else {
                                                                votes[1] += 1;
                                                            }
                                                        }

                                                        else {
                                                            votes[1] += 1;
                                                        }
                                                    }
                                                }
                                            }

                                            else {
                                                if (x[2] <= 12.548725128173828) {
                                                    votes[2] += 1;
                                                }

                                                else {
                                                    votes[0] += 1;
                                                }
                                            }
                                        }

                                        else {
                                            if (x[1] <= 14.991283893585205) {
                                                if (x[3] <= 51.29379463195801) {
                                                    votes[1] += 1;
                                                }

                                                else {
                                                    if (x[2] <= 11.730021476745605) {
                                                        if (x[3] <= 53.92660713195801) {
                                                            votes[2] += 1;
                                                        }

                                                        else {
                                                            if (x[2] <= 9.140771865844727) {
                                                                votes[2] += 1;
                                                            }

                                                            else {
                                                                votes[2] += 1;
                                                            }
                                                        }
                                                    }

                                                    else {
                                                        if (x[2] <= 11.861649513244629) {
                                                            if (x[0] <= 65.46961784362793) {
                                                                votes[1] += 1;
                                                            }

                                                            else {
                                                                votes[0] += 1;
                                                            }
                                                        }

                                                        else {
                                                            if (x[0] <= 58.74355697631836) {
                                                                votes[0] += 1;
                                                            }

                                                            else {
                                                                votes[2] += 1;
                                                            }
                                                        }
                                                    }
                                                }
                                            }

                                            else {
                                                if (x[3] <= 56.289669036865234) {
                                                    votes[2] += 1;
                                                }

                                                else {
                                                    votes[1] += 1;
                                                }
                                            }
                                        }
                                    }

                                    else {
                                        votes[2] += 1;
                                    }
                                }
                            }
                        }

                        // tree #2
                        if (x[3] <= 34.386234283447266) {
                            if (x[2] <= 16.11014175415039) {
                                if (x[0] <= 38.762197494506836) {
                                    if (x[2] <= 15.261396884918213) {
                                        if (x[0] <= 19.13285541534424) {
                                            if (x[0] <= 18.1015625) {
                                                if (x[2] <= 12.381342887878418) {
                                                    if (x[3] <= 15.936646938323975) {
                                                        if (x[2] <= 6.701482057571411) {
                                                            if (x[3] <= 8.410735130310059) {
                                                                votes[2] += 1;
                                                            }

                                                            else {
                                                                votes[1] += 1;
                                                            }
                                                        }

                                                        else {
                                                            if (x[3] <= 15.732470989227295) {
                                                                votes[2] += 1;
                                                            }

                                                            else {
                                                                votes[1] += 1;
                                                            }
                                                        }
                                                    }

                                                    else {
                                                        if (x[0] <= 17.390201568603516) {
                                                            votes[2] += 1;
                                                        }

                                                        else {
                                                            if (x[0] <= 17.59250831604004) {
                                                                votes[1] += 1;
                                                            }

                                                            else {
                                                                votes[2] += 1;
                                                            }
                                                        }
                                                    }
                                                }

                                                else {
                                                    if (x[2] <= 14.220193862915039) {
                                                        if (x[2] <= 12.623492240905762) {
                                                            votes[2] += 1;
                                                        }

                                                        else {
                                                            if (x[2] <= 12.679888248443604) {
                                                                votes[0] += 1;
                                                            }

                                                            else {
                                                                votes[2] += 1;
                                                            }
                                                        }
                                                    }

                                                    else {
                                                        if (x[3] <= 9.96626901626587) {
                                                            if (x[0] <= 9.27568006515503) {
                                                                votes[1] += 1;
                                                            }

                                                            else {
                                                                votes[0] += 1;
                                                            }
                                                        }

                                                        else {
                                                            if (x[2] <= 14.248870849609375) {
                                                                votes[1] += 1;
                                                            }

                                                            else {
                                                                votes[2] += 1;
                                                            }
                                                        }
                                                    }
                                                }
                                            }

                                            else {
                                                if (x[0] <= 19.062496185302734) {
                                                    if (x[2] <= 9.640514850616455) {
                                                        if (x[1] <= 10.596567630767822) {
                                                            votes[1] += 1;
                                                        }

                                                        else {
                                                            if (x[3] <= 17.572497367858887) {
                                                                votes[2] += 1;
                                                            }

                                                            else {
                                                                votes[1] += 1;
                                                            }
                                                        }
                                                    }

                                                    else {
                                                        if (x[2] <= 13.059853076934814) {
                                                            if (x[2] <= 12.557384967803955) {
                                                                votes[0] += 1;
                                                            }

                                                            else {
                                                                votes[2] += 1;
                                                            }
                                                        }

                                                        else {
                                                            if (x[1] <= 18.80799388885498) {
                                                                votes[0] += 1;
                                                            }

                                                            else {
                                                                votes[1] += 1;
                                                            }
                                                        }
                                                    }
                                                }

                                                else {
                                                    if (x[2] <= 12.974127292633057) {
                                                        votes[1] += 1;
                                                    }

                                                    else {
                                                        votes[0] += 1;
                                                    }
                                                }
                                            }
                                        }

                                        else {
                                            if (x[3] <= 34.27899742126465) {
                                                if (x[1] <= 15.020911693572998) {
                                                    if (x[2] <= 12.4473295211792) {
                                                        if (x[1] <= 14.769336700439453) {
                                                            if (x[1] <= 14.752508163452148) {
                                                                votes[2] += 1;
                                                            }

                                                            else {
                                                                votes[1] += 1;
                                                            }
                                                        }

                                                        else {
                                                            if (x[1] <= 14.98629379272461) {
                                                                votes[2] += 1;
                                                            }

                                                            else {
                                                                votes[2] += 1;
                                                            }
                                                        }
                                                    }

                                                    else {
                                                        if (x[3] <= 33.72104835510254) {
                                                            if (x[1] <= 13.57173204421997) {
                                                                votes[2] += 1;
                                                            }

                                                            else {
                                                                votes[2] += 1;
                                                            }
                                                        }

                                                        else {
                                                            if (x[3] <= 33.97445106506348) {
                                                                votes[1] += 1;
                                                            }

                                                            else {
                                                                votes[2] += 1;
                                                            }
                                                        }
                                                    }
                                                }

                                                else {
                                                    if (x[1] <= 16.219846725463867) {
                                                        if (x[2] <= 8.492083549499512) {
                                                            if (x[1] <= 15.528315544128418) {
                                                                votes[2] += 1;
                                                            }

                                                            else {
                                                                votes[0] += 1;
                                                            }
                                                        }

                                                        else {
                                                            if (x[1] <= 15.023027896881104) {
                                                                votes[1] += 1;
                                                            }

                                                            else {
                                                                votes[2] += 1;
                                                            }
                                                        }
                                                    }

                                                    else {
                                                        if (x[3] <= 33.81392288208008) {
                                                            if (x[1] <= 17.917924880981445) {
                                                                votes[2] += 1;
                                                            }

                                                            else {
                                                                votes[2] += 1;
                                                            }
                                                        }

                                                        else {
                                                            if (x[0] <= 38.00851249694824) {
                                                                votes[1] += 1;
                                                            }

                                                            else {
                                                                votes[2] += 1;
                                                            }
                                                        }
                                                    }
                                                }
                                            }

                                            else {
                                                if (x[1] <= 12.99675989151001) {
                                                    if (x[1] <= 9.27607011795044) {
                                                        votes[1] += 1;
                                                    }

                                                    else {
                                                        if (x[1] <= 12.715706825256348) {
                                                            votes[0] += 1;
                                                        }

                                                        else {
                                                            if (x[0] <= 36.93094825744629) {
                                                                votes[2] += 1;
                                                            }

                                                            else {
                                                                votes[0] += 1;
                                                            }
                                                        }
                                                    }
                                                }

                                                else {
                                                    if (x[1] <= 16.714919567108154) {
                                                        if (x[3] <= 34.296058654785156) {
                                                            if (x[2] <= 11.116452693939209) {
                                                                votes[1] += 1;
                                                            }

                                                            else {
                                                                votes[0] += 1;
                                                            }
                                                        }

                                                        else {
                                                            if (x[1] <= 15.14124059677124) {
                                                                votes[2] += 1;
                                                            }

                                                            else {
                                                                votes[1] += 1;
                                                            }
                                                        }
                                                    }

                                                    else {
                                                        votes[0] += 1;
                                                    }
                                                }
                                            }
                                        }
                                    }

                                    else {
                                        if (x[1] <= 19.64490032196045) {
                                            if (x[3] <= 24.014766693115234) {
                                                if (x[1] <= 18.951770782470703) {
                                                    if (x[3] <= 3.8181533813476562) {
                                                        votes[0] += 1;
                                                    }

                                                    else {
                                                        if (x[2] <= 15.295384407043457) {
                                                            if (x[0] <= 17.456371307373047) {
                                                                votes[0] += 1;
                                                            }

                                                            else {
                                                                votes[1] += 1;
                                                            }
                                                        }

                                                        else {
                                                            if (x[2] <= 15.663197040557861) {
                                                                votes[2] += 1;
                                                            }

                                                            else {
                                                                votes[2] += 1;
                                                            }
                                                        }
                                                    }
                                                }

                                                else {
                                                    votes[1] += 1;
                                                }
                                            }

                                            else {
                                                if (x[2] <= 15.918381690979004) {
                                                    if (x[3] <= 29.680975914001465) {
                                                        if (x[1] <= 17.236936569213867) {
                                                            if (x[0] <= 32.16562271118164) {
                                                                votes[1] += 1;
                                                            }

                                                            else {
                                                                votes[0] += 1;
                                                            }
                                                        }

                                                        else {
                                                            if (x[2] <= 15.763397216796875) {
                                                                votes[0] += 1;
                                                            }

                                                            else {
                                                                votes[2] += 1;
                                                            }
                                                        }
                                                    }

                                                    else {
                                                        if (x[0] <= 33.42156791687012) {
                                                            votes[2] += 1;
                                                        }

                                                        else {
                                                            if (x[3] <= 30.397205352783203) {
                                                                votes[0] += 1;
                                                            }

                                                            else {
                                                                votes[2] += 1;
                                                            }
                                                        }
                                                    }
                                                }

                                                else {
                                                    if (x[0] <= 32.53231430053711) {
                                                        if (x[1] <= 14.794971466064453) {
                                                            votes[1] += 1;
                                                        }

                                                        else {
                                                            votes[0] += 1;
                                                        }
                                                    }

                                                    else {
                                                        votes[0] += 1;
                                                    }
                                                }
                                            }
                                        }

                                        else {
                                            if (x[0] <= 23.19987392425537) {
                                                votes[0] += 1;
                                            }

                                            else {
                                                if (x[1] <= 20.851691246032715) {
                                                    votes[0] += 1;
                                                }

                                                else {
                                                    votes[2] += 1;
                                                }
                                            }
                                        }
                                    }
                                }

                                else {
                                    if (x[0] <= 39.05095291137695) {
                                        if (x[3] <= 34.27572059631348) {
                                            if (x[2] <= 7.775295257568359) {
                                                votes[0] += 1;
                                            }

                                            else {
                                                if (x[2] <= 12.08813190460205) {
                                                    if (x[2] <= 11.188735485076904) {
                                                        votes[1] += 1;
                                                    }

                                                    else {
                                                        votes[2] += 1;
                                                    }
                                                }

                                                else {
                                                    votes[1] += 1;
                                                }
                                            }
                                        }

                                        else {
                                            votes[2] += 1;
                                        }
                                    }

                                    else {
                                        if (x[2] <= 5.34905481338501) {
                                            votes[0] += 1;
                                        }

                                        else {
